digraph Tree {
node [shape=box] ;
0 [label="X[3] <= 0.8\ngini = 0.662\nsamples = 100\nvalue = [35, 28, 37]"] ;
1 [label="gini = 0.0\nsamples = 35\nvalue = [35, 0, 0]"] ;
0 -> 1 [labeldistance=2.5, labelangle=45, headlabel="True"] ;
2 [label="X[3] <= 1.65\ngini = 0.49\nsamples = 65\nvalue = [0, 28, 37]"] ;
0 -> 2 [labeldistance=2.5, labelangle=-45, headlabel="False"] ;
3 [label="X[2] <= 4.95\ngini = 0.18\nsamples = 30\nvalue = [0, 27, 3]"] ;
2 -> 3 ;
4 [label="gini = 0.0\nsamples = 26\nvalue = [0, 26, 0]"] ;
3 -> 4 ;
5 [label="X[1] <= 2.75\ngini = 0.375\nsamples = 4\nvalue = [0, 1, 3]"] ;
3 -> 5 ;
6 [label="X[2] <= 5.05\ngini = 0.5\nsamples = 2\nvalue = [0, 1, 1]"] ;
5 -> 6 ;
7 [label="gini = 0.0\nsamples = 1\nvalue = [0, 0, 1]"] ;
6 -> 7 ;
8 [label="gini = 0.0\nsamples = 1\nvalue = [0, 1, 0]"] ;
6 -> 8 ;
9 [label="gini = 0.0\nsamples = 2\nvalue = [0, 0, 2]"] ;
5 -> 9 ;
10 [label="X[2] <= 4.85\ngini = 0.056\nsamples = 35\nvalue = [0, 1, 34]"] ;
2 -> 10 ;
11 [label="X[2] <= 4.65\ngini = 0.5\nsamples = 2\nvalue = [0, 1, 1]"] ;
10 -> 11 ;
12 [label="gini = 0.0\nsamples = 1\nvalue = [0, 0, 1]"] ;
11 -> 12 ;
13 [label="gini = 0.0\nsamples = 1\nvalue = [0, 1, 0]"] ;
11 -> 13 ;
14 [label="gini = 0.0\nsamples = 33\nvalue = [0, 0, 33]"] ;
10 -> 14 ;
}